digraph Tree {
node [shape=box, style="filled", color="black", fontname="helvetica"] ;
edge [fontname="helvetica"] ;
0 [label="displacement <= 134.5\ngini = 0.558\nsamples = 313\nvalue = [54, 71, 188]\nclass = japan", fillcolor="#c29ff2"] ;
1 [label="mpg <= 30.95\ngini = 0.623\nsamples = 136\nvalue = [48, 64, 24]\nclass = europe", fillcolor="#dbfae8"] ;
0 -> 1 [labeldistance=2.5, labelangle=45, headlabel="True"] ;
2 [label="horsepower <= 87.0\ngini = 0.622\nsamples = 74\nvalue = [36, 24, 14]\nclass = usa", fillcolor="#f9e1cf"] ;
1 -> 2 ;
3 [label="displacement <= 97.25\ngini = 0.578\nsamples = 38\nvalue = [21, 5, 12]\nclass = usa", fillcolor="#f6d3ba"] ;
2 -> 3 ;
4 [label="model_year <= 74.5\ngini = 0.43\nsamples = 22\nvalue = [16, 4, 2]\nclass = usa", fillcolor="#eeab7b"] ;
3 -> 4 ;
5 [label="acceleration <= 15.0\ngini = 0.153\nsamples = 12\nvalue = [11, 0, 1]\nclass = usa", fillcolor="#e78c4b"] ;
4 -> 5 ;
6 [label="horsepower <= 75.5\ngini = 0.444\nsamples = 3\nvalue = [2, 0, 1]\nclass = usa", fillcolor="#f2c09c"] ;
5 -> 6 ;
7 [label="gini = 0.0\nsamples = 1\nvalue = [0, 0, 1]\nclass = japan", fillcolor="#8139e5"] ;
6 -> 7 ;
8 [label="gini = 0.0\nsamples = 2\nvalue = [2, 0, 0]\nclass = usa", fillcolor="#e58139"] ;
6 -> 8 ;
9 [label="gini = 0.0\nsamples = 9\nvalue = [9, 0, 0]\nclass = usa", fillcolor="#e58139"] ;
5 -> 9 ;
10 [label="acceleration <= 15.65\ngini = 0.58\nsamples = 10\nvalue = [5, 4, 1]\nclass = usa", fillcolor="#fbeade"] ;
4 -> 10 ;
11 [label="gini = 0.0\nsamples = 4\nvalue = [4, 0, 0]\nclass = usa", fillcolor="#e58139"] ;
10 -> 11 ;
12 [label="displacement <= 93.5\ngini = 0.5\nsamples = 6\nvalue = [1, 4, 1]\nclass = europe", fillcolor="#88efb3"] ;
10 -> 12 ;
13 [label="acceleration <= 19.35\ngini = 0.5\nsamples = 2\nvalue = [1, 0, 1]\nclass = usa", fillcolor="#ffffff"] ;
12 -> 13 ;
14 [label="gini = 0.0\nsamples = 1\nvalue = [1, 0, 0]\nclass = usa", fillcolor="#e58139"] ;
13 -> 14 ;
15 [label="gini = 0.0\nsamples = 1\nvalue = [0, 0, 1]\nclass = japan", fillcolor="#8139e5"] ;
13 -> 15 ;
16 [label="gini = 0.0\nsamples = 4\nvalue = [0, 4, 0]\nclass = europe", fillcolor="#39e581"] ;
12 -> 16 ;
17 [label="weight <= 2429.5\ngini = 0.508\nsamples = 16\nvalue = [5, 1, 10]\nclass = japan", fillcolor="#c6a5f3"] ;
3 -> 17 ;
18 [label="weight <= 2219.5\ngini = 0.439\nsamples = 14\nvalue = [3, 1, 10]\nclass = japan", fillcolor="#af81ee"] ;
17 -> 18 ;
19 [label="displacement <= 99.5\ngini = 0.594\nsamples = 8\nvalue = [3, 1, 4]\nclass = japan", fillcolor="#e6d7fa"] ;
18 -> 19 ;
20 [label="horsepower <= 81.5\ngini = 0.5\nsamples = 6\nvalue = [1, 1, 4]\nclass = japan", fillcolor="#b388ef"] ;
19 -> 20 ;
21 [label="model_year <= 77.5\ngini = 0.32\nsamples = 5\nvalue = [0, 1, 4]\nclass = japan", fillcolor="#a06aec"] ;
20 -> 21 ;
22 [label="gini = 0.0\nsamples = 3\nvalue = [0, 0, 3]\nclass = japan", fillcolor="#8139e5"] ;
21 -> 22 ;
23 [label="weight <= 2145.0\ngini = 0.5\nsamples = 2\nvalue = [0, 1, 1]\nclass = europe", fillcolor="#ffffff"] ;
21 -> 23 ;
24 [label="gini = 0.0\nsamples = 1\nvalue = [0, 1, 0]\nclass = europe", fillcolor="#39e581"] ;
23 -> 24 ;
25 [label="gini = 0.0\nsamples = 1\nvalue = [0, 0, 1]\nclass = japan", fillcolor="#8139e5"] ;
23 -> 25 ;
26 [label="gini = 0.0\nsamples = 1\nvalue = [1, 0, 0]\nclass = usa", fillcolor="#e58139"] ;
20 -> 26 ;
27 [label="gini = 0.0\nsamples = 2\nvalue = [2, 0, 0]\nclass = usa", fillcolor="#e58139"] ;
19 -> 27 ;
28 [label="gini = 0.0\nsamples = 6\nvalue = [0, 0, 6]\nclass = japan", fillcolor="#8139e5"] ;
18 -> 28 ;
29 [label="gini = 0.0\nsamples = 2\nvalue = [2, 0, 0]\nclass = usa", fillcolor="#e58139"] ;
17 -> 29 ;
30 [label="weight <= 2757.5\ngini = 0.545\nsamples = 36\nvalue = [15, 19, 2]\nclass = europe", fillcolor="#d9fae7"] ;
2 -> 30 ;
31 [label="model_year <= 81.0\ngini = 0.49\nsamples = 29\nvalue = [8, 19, 2]\nclass = europe", fillcolor="#97f1bd"] ;
30 -> 31 ;
32 [label="displacement <= 97.5\ngini = 0.417\nsamples = 27\nvalue = [8, 19, 0]\nclass = europe", fillcolor="#8cf0b6"] ;
31 -> 32 ;
33 [label="gini = 0.0\nsamples = 8\nvalue = [0, 8, 0]\nclass = europe", fillcolor="#39e581"] ;
32 -> 33 ;
34 [label="model_year <= 73.5\ngini = 0.488\nsamples = 19\nvalue = [8, 11, 0]\nclass = europe", fillcolor="#c9f8dd"] ;
32 -> 34 ;
35 [label="horsepower <= 93.0\ngini = 0.463\nsamples = 11\nvalue = [7, 4, 0]\nclass = usa", fillcolor="#f4c9aa"] ;
34 -> 35 ;
36 [label="gini = 0.0\nsamples = 4\nvalue = [4, 0, 0]\nclass = usa", fillcolor="#e58139"] ;
35 -> 36 ;
37 [label="horsepower <= 103.5\ngini = 0.49\nsamples = 7\nvalue = [3, 4, 0]\nclass = europe", fillcolor="#cef8e0"] ;
35 -> 37 ;
38 [label="displacement <= 108.5\ngini = 0.32\nsamples = 5\nvalue = [1, 4, 0]\nclass = europe", fillcolor="#6aeca0"] ;
37 -> 38 ;
39 [label="gini = 0.0\nsamples = 1\nvalue = [1, 0, 0]\nclass = usa", fillcolor="#e58139"] ;
38 -> 39 ;
40 [label="gini = 0.0\nsamples = 4\nvalue = [0, 4, 0]\nclass = europe", fillcolor="#39e581"] ;
38 -> 40 ;
41 [label="gini = 0.0\nsamples = 2\nvalue = [2, 0, 0]\nclass = usa", fillcolor="#e58139"] ;
37 -> 41 ;
42 [label="mpg <= 23.45\ngini = 0.219\nsamples = 8\nvalue = [1, 7, 0]\nclass = europe", fillcolor="#55e993"] ;
34 -> 42 ;
43 [label="gini = 0.0\nsamples = 1\nvalue = [1, 0, 0]\nclass = usa", fillcolor="#e58139"] ;
42 -> 43 ;
44 [label="gini = 0.0\nsamples = 7\nvalue = [0, 7, 0]\nclass = europe", fillcolor="#39e581"] ;
42 -> 44 ;
45 [label="gini = 0.0\nsamples = 2\nvalue = [0, 0, 2]\nclass = japan", fillcolor="#8139e5"] ;
31 -> 45 ;
46 [label="gini = 0.0\nsamples = 7\nvalue = [7, 0, 0]\nclass = usa", fillcolor="#e58139"] ;
30 -> 46 ;
47 [label="displacement <= 97.5\ngini = 0.52\nsamples = 62\nvalue = [12, 40, 10]\nclass = europe", fillcolor="#90f0b8"] ;
1 -> 47 ;
48 [label="acceleration <= 21.25\ngini = 0.361\nsamples = 38\nvalue = [9, 29, 0]\nclass = europe", fillcolor="#76eda8"] ;
47 -> 48 ;
49 [label="horsepower <= 70.5\ngini = 0.284\nsamples = 35\nvalue = [6, 29, 0]\nclass = europe", fillcolor="#62ea9b"] ;
48 -> 49 ;
50 [label="weight <= 2120.0\ngini = 0.17\nsamples = 32\nvalue = [3, 29, 0]\nclass = europe", fillcolor="#4de88e"] ;
49 -> 50 ;
51 [label="displacement <= 80.0\ngini = 0.124\nsamples = 30\nvalue = [2, 28, 0]\nclass = europe", fillcolor="#47e78a"] ;
50 -> 51 ;
52 [label="acceleration <= 18.8\ngini = 0.408\nsamples = 7\nvalue = [2, 5, 0]\nclass = europe", fillcolor="#88efb3"] ;
51 -> 52 ;
53 [label="weight <= 1790.0\ngini = 0.444\nsamples = 3\nvalue = [2, 1, 0]\nclass = usa", fillcolor="#f2c09c"] ;
52 -> 53 ;
54 [label="gini = 0.0\nsamples = 1\nvalue = [0, 1, 0]\nclass = europe", fillcolor="#39e581"] ;
53 -> 54 ;
55 [label="gini = 0.0\nsamples = 2\nvalue = [2, 0, 0]\nclass = usa", fillcolor="#e58139"] ;
53 -> 55 ;
56 [label="gini = 0.0\nsamples = 4\nvalue = [0, 4, 0]\nclass = europe", fillcolor="#39e581"] ;
52 -> 56 ;
57 [label="gini = 0.0\nsamples = 23\nvalue = [0, 23, 0]\nclass = europe", fillcolor="#39e581"] ;
51 -> 57 ;
58 [label="mpg <= 35.55\ngini = 0.5\nsamples = 2\nvalue = [1, 1, 0]\nclass = usa", fillcolor="#ffffff"] ;
50 -> 58 ;
59 [label="gini = 0.0\nsamples = 1\nvalue = [0, 1, 0]\nclass = europe", fillcolor="#39e581"] ;
58 -> 59 ;
60 [label="gini = 0.0\nsamples = 1\nvalue = [1, 0, 0]\nclass = usa", fillcolor="#e58139"] ;
58 -> 60 ;
61 [label="gini = 0.0\nsamples = 3\nvalue = [3, 0, 0]\nclass = usa", fillcolor="#e58139"] ;
49 -> 61 ;
62 [label="gini = 0.0\nsamples = 3\nvalue = [3, 0, 0]\nclass = usa", fillcolor="#e58139"] ;
48 -> 62 ;
63 [label="displacement <= 106.0\ngini = 0.601\nsamples = 24\nvalue = [3, 11, 10]\nclass = europe", fillcolor="#f1fdf6"] ;
47 -> 63 ;
64 [label="acceleration <= 17.35\ngini = 0.34\nsamples = 10\nvalue = [1, 1, 8]\nclass = japan", fillcolor="#9d65eb"] ;
63 -> 64 ;
65 [label="acceleration <= 14.3\ngini = 0.198\nsamples = 9\nvalue = [1, 0, 8]\nclass = japan", fillcolor="#9152e8"] ;
64 -> 65 ;
66 [label="weight <= 2195.0\ngini = 0.5\nsamples = 2\nvalue = [1, 0, 1]\nclass = usa", fillcolor="#ffffff"] ;
65 -> 66 ;
67 [label="gini = 0.0\nsamples = 1\nvalue = [1, 0, 0]\nclass = usa", fillcolor="#e58139"] ;
66 -> 67 ;
68 [label="gini = 0.0\nsamples = 1\nvalue = [0, 0, 1]\nclass = japan", fillcolor="#8139e5"] ;
66 -> 68 ;
69 [label="gini = 0.0\nsamples = 7\nvalue = [0, 0, 7]\nclass = japan", fillcolor="#8139e5"] ;
65 -> 69 ;
70 [label="gini = 0.0\nsamples = 1\nvalue = [0, 1, 0]\nclass = europe", fillcolor="#39e581"] ;
64 -> 70 ;
71 [label="displacement <= 120.5\ngini = 0.449\nsamples = 14\nvalue = [2, 10, 2]\nclass = europe", fillcolor="#7beeab"] ;
63 -> 71 ;
72 [label="acceleration <= 17.75\ngini = 0.278\nsamples = 12\nvalue = [0, 10, 2]\nclass = europe", fillcolor="#61ea9a"] ;
71 -> 72 ;
73 [label="gini = 0.0\nsamples = 9\nvalue = [0, 9, 0]\nclass = europe", fillcolor="#39e581"] ;
72 -> 73 ;
74 [label="displacement <= 119.5\ngini = 0.444\nsamples = 3\nvalue = [0, 1, 2]\nclass = japan", fillcolor="#c09cf2"] ;
72 -> 74 ;
75 [label="gini = 0.0\nsamples = 2\nvalue = [0, 0, 2]\nclass = japan", fillcolor="#8139e5"] ;
74 -> 75 ;
76 [label="gini = 0.0\nsamples = 1\nvalue = [0, 1, 0]\nclass = europe", fillcolor="#39e581"] ;
74 -> 76 ;
77 [label="gini = 0.0\nsamples = 2\nvalue = [2, 0, 0]\nclass = usa", fillcolor="#e58139"] ;
71 -> 77 ;
78 [label="displacement <= 190.5\ngini = 0.139\nsamples = 177\nvalue = [6, 7, 164]\nclass = japan", fillcolor="#8b48e7"] ;
0 -> 78 [labeldistance=2.5, labelangle=-45, headlabel="False"] ;
79 [label="weight <= 3045.0\ngini = 0.491\nsamples = 40\nvalue = [6, 7, 27]\nclass = japan", fillcolor="#b387ef"] ;
78 -> 79 ;
80 [label="horsepower <= 115.5\ngini = 0.327\nsamples = 34\nvalue = [0, 7, 27]\nclass = japan", fillcolor="#a26cec"] ;
79 -> 80 ;
81 [label="mpg <= 19.5\ngini = 0.18\nsamples = 30\nvalue = [0, 3, 27]\nclass = japan", fillcolor="#8f4fe8"] ;
80 -> 81 ;
82 [label="gini = 0.0\nsamples = 1\nvalue = [0, 1, 0]\nclass = europe", fillcolor="#39e581"] ;
81 -> 82 ;
83 [label="horsepower <= 94.0\ngini = 0.128\nsamples = 29\nvalue = [0, 2, 27]\nclass = japan", fillcolor="#8a48e7"] ;
81 -> 83 ;
84 [label="gini = 0.0\nsamples = 21\nvalue = [0, 0, 21]\nclass = japan", fillcolor="#8139e5"] ;
83 -> 84 ;
85 [label="horsepower <= 101.0\ngini = 0.375\nsamples = 8\nvalue = [0, 2, 6]\nclass = japan", fillcolor="#ab7bee"] ;
83 -> 85 ;
86 [label="gini = 0.0\nsamples = 2\nvalue = [0, 2, 0]\nclass = europe", fillcolor="#39e581"] ;
85 -> 86 ;
87 [label="gini = 0.0\nsamples = 6\nvalue = [0, 0, 6]\nclass = japan", fillcolor="#8139e5"] ;
85 -> 87 ;
88 [label="gini = 0.0\nsamples = 4\nvalue = [0, 4, 0]\nclass = europe", fillcolor="#39e581"] ;
80 -> 88 ;
89 [label="gini = 0.0\nsamples = 6\nvalue = [6, 0, 0]\nclass = usa", fillcolor="#e58139"] ;
79 -> 89 ;
90 [label="gini = 0.0\nsamples = 137\nvalue = [0, 0, 137]\nclass = japan", fillcolor="#8139e5"] ;
78 -> 90 ;
}